17 200
的 -0.00067278685 7.276157e-05 0.0018173717 0.0009605454 -0.0020039715 -0.0014977845 -0.0022890028 0.0011740412 0.00045501924 -0.0025184865 0.0007995371 0.00093105633 -0.0003386626 0.0010371897 0.00036507277 0.0006910114 1.4874211e-05 0.0022416427 -8.5064225e-05 -0.00044744986 0.0014972612 -0.000353558 -0.0016824898 -0.0007128329 0.0014834717 0.0014317852 0.0018640691 -0.0023502377 0.0024227318 0.00033017676 0.0021077592 0.0017122837 0.0010595624 0.0017597441 -0.00011510999 0.0025836867 -0.0009541685 -0.0023209902 -0.0011904166 -0.0009717945 -0.0004349851 -0.0025566006 -0.0010564487 0.0016373922 0.00019430496 -0.0014650106 -0.0019063954 -0.0018192658 0.00014891686 0.0012848924 -0.0019934827 -0.0022342 0.00096813 0.0014197796 -0.0024869826 0.0019423545 -0.0015897433 0.0006429108 -0.0007809405 -0.002018677 -0.0010155843 0.0016082437 -0.00096933864 0.002300608 -0.001333239 -0.0013080698 -0.00040868451 0.0016723309 -0.0013674955 -0.0012423294 0.00085026067 -0.0014274776 0.0025604665 0.0024204764 0.0021220448 0.0012464472 -0.0012241816 0.0017853734 -0.001599835 0.0011726297 0.00021971931 0.0020275374 0.0009583096 0.00090787205 -0.0012284729 7.41537e-05 0.00042236166 0.001253265 0.0019589067 -0.0021013515 0.000997496 -0.0014391214 -0.0010523191 -0.0017245715 0.00055859075 -9.093833e-05 -0.00020124594 -0.0011200767 0.0011929679 -0.0008087145 0.00055865943 7.950924e-05 -0.00014953606 0.0007842419 -0.0023146106 -0.0005999959 0.0019542263 0.000557608 0.0018214397 0.0014017913 -0.0019297419 -0.001128631 -0.0011646622 0.0022988324 -0.00012545142 -0.0009779395 -0.0009261349 0.0007346712 0.0014887705 -0.002394278 0.0021242148 -0.00024126914 -0.0010578869 0.00091063714 0.0021120203 0.00045012924 0.00097565766 0.0012710465 0.0011851622 -0.0019190185 -0.00086302555 -0.0009932901 0.0020519306 0.0022338585 0.00084658357 -0.0013784129 -0.0007512799 0.0012894453 0.0019419187 0.0006939227 0.002373096 -0.0024672446 -0.0027775029 0.0013344393 0.0012691896 0.0009250712 0.00017468895 0.00033918582 0.0016732874 -0.0023088248 -0.0008836168 -0.0009310956 0.0020734638 -0.0019717987 -0.0022278097 -0.00015188167 -0.0020345994 0.0022335441 -0.0013700492 0.0024728067 0.0012163086 -0.0015964196 -0.002026004 0.0020641224 0.002561967 -0.0010611565 1.7027309e-05 -0.0016433708 0.000985404 0.0024433492 0.0013095348 -0.0012650642 -0.00046575972 -0.0006095286 -0.00061823404 -0.0010052118 -0.00075579697 -5.6523288e-05 -0.00025366063 0.0009973787 -0.002484759 -0.0012199882 -0.0007128076 -0.0013755339 -0.0009757584 -0.0011720826 -0.0007682257 -3.0530196e-06 0.00066557695 0.0022576796 -0.00027109674 -0.002507672 -0.000633285 0.0018280424 0.00042186084 0.0014242735 0.002010095 0.00046057085 -0.0013862044 -0.0019637614
方法 0.002296237 -0.00013891025 0.0009273521 -0.0011396668 0.0013605289 -4.8603393e-05 0.001307784 0.00037106572 0.0014425279 -0.001941804 -0.0024566306 0.0023195657 -0.0018847606 -0.00010892332 -0.0008156824 0.0001411281 0.00059316633 0.0008168396 0.002422066 -1.868857e-05 0.00038734626 -0.00023941968 0.0021305415 0.0020772903 0.0025467263 -0.001811695 -0.0016893044 -0.00021952875 0.00026481107 0.00070178654 0.0015327409 -0.0022631164 -0.0020624355 0.0008184889 -0.0007487008 0.0006560074 0.0022713891 0.00082502374 -0.0023945055 0.0010581309 0.00073863653 -0.002473366 -0.0016976475 -0.00016022168 -6.066984e-05 -0.0012674859 0.0020169353 -0.0024005217 0.0005520026 -0.0017897593 0.0019266872 -0.0014312142 0.002492016 0.0009388371 -0.0020818047 -5.0513023e-05 -0.0011574439 0.0011819603 -0.0011513372 -0.0021946398 -0.0010402792 0.0015611628 -0.0007574755 0.00075850287 -0.0016617945 -0.002217001 -0.001654912 0.00033443485 -0.0017390064 9.3466624e-05 -1.9164021e-05 0.000102428676 0.002550215 -6.71209e-05 0.0003821092 0.002449344 0.002495558 -0.0013410359 -0.0012461694 0.0014308597 -0.0016578021 -8.52999e-05 -0.0015177056 -0.0020347668 0.0007364848 0.00094116497 -0.0023358897 -0.0016541597 -0.0014629179 -0.002495772 -0.000424055 0.0011507854 -0.0020812703 0.0015526453 0.00062831177 0.0013790609 -0.00070868264 0.0004155129 0.0007215726 0.0019915989 0.0007644257 -0.0015134603 0.00091437396 0.0014100622 -0.00083072286 0.0006030355 0.00037599856 0.0021453567 0.0018777569 -0.00054038805 -0.0014466336 -0.002143227 0.0014723762 0.0023627365 -0.0014008883 0.0023192917 -9.794172e-05 -0.0004416363 -0.00029647545 3.4681012e-05 0.0021885382 0.00076243957 0.0018445828 -0.0018758177 0.0022396566 -0.00077047927 0.000768305 0.002109748 -0.001720526 3.4496043e-05 -0.0014098407 -0.0007769918 -9.282724e-05 -1.1394922e-05 0.0011697664 4.2260566e-05 -0.00093541446 0.0008142142 -0.00075853226 -0.0018276883 0.00040703118 -0.0022311432 -0.0019917518 -0.0002173371 -0.0013673999 0.0016541388 -0.00048093486 -0.00093883544 -0.00054374215 -0.001779009 -0.0017336714 -0.0019699812 0.002341671 -0.000329612 -0.0022323083 -0.0020002343 0.00089631707 0.00072115037 0.0003635594 0.00044029334 -0.0022241252 0.00042555283 0.000962451 -0.0013950178 0.0015048258 -0.00081197056 0.00024416167 -0.0022903595 0.0011379201 -0.0014685469 0.0009943325 0.0024043568 0.00022242467 0.0009827411 -0.0022649649 0.00050849596 -0.0018228975 0.0019627085 0.0008465159 -0.0013372529 -0.000554711 0.0012839927 0.0021642912 -0.0023220049 -0.0022676603 -0.0014190661 0.00017841531 9.050514e-05 0.0008443069 -0.0016908152 0.0012879847 -0.00092679594 -0.0016410813 0.0012733445 -0.00014478907 0.00038771838 -0.0022891061 0.00030066338 0.0011177834 0.0022243743
和 -0.0022466055 -0.0011955654 0.00097095926 0.00060511456 0.0011443262 -0.002097893 -5.695961e-05 0.0009926055 -0.0009019546 0.0014864058 0.0021061616 -0.0024765306 0.0020341193 -0.00010892125 -0.002408371 -0.0012602606 0.001209921 0.0008194161 -0.00034584335 -0.002172318 0.0011805301 0.00041443968 -0.0013740055 -0.0020944148 0.0008876478 0.00014406044 0.00032737618 -0.0022551178 -0.0012003994 -0.0016958778 0.0026151782 0.00011083911 -0.00061183795 -0.0006682755 0.00011218805 0.00024583834 0.00245375 0.00044217578 0.00075848954 0.0020815018 -6.2222134e-05 0.0006356254 0.0022882093 -0.00064781314 0.00011969094 0.002427612 -0.002459685 -0.00030787478 -0.002567697 0.0023002594 -0.00088831113 0.0011955844 0.0005709975 -0.00054575125 0.0003805421 -0.0009269644 -0.00073390064 -0.001664121 -0.0015691235 -0.00011507726 0.000786487 0.00022727913 -0.0022582177 0.0016050583 -0.002374405 -0.00207937 0.0011897028 -0.0016672149 -0.0010447961 -0.0019917327 0.0017673263 -0.0009883257 0.0015049066 0.0011142287 0.001765667 0.0003297112 0.0025687965 -0.0019063039 0.0014052795 0.0012243151 0.0003548688 -0.0016065503 0.0010075633 -0.0016432191 -0.00029279853 0.0015715061 -0.000776843 -0.0016840836 -0.002471428 0.0011204978 -0.0015323487 0.0009325862 0.0005220644 -0.0022815943 -0.0025272209 0.0017413653 -0.0023416842 -0.0022899644 0.0017478646 0.0013573715 -0.0007425332 0.002477832 -0.00038813008 -0.0012217932 -0.00038714273 -0.002273036 -0.0017024007 0.00076892355 -0.001527764 -0.00038541513 -6.4139706e-05 -0.0018953019 -0.0014462193 0.00021044945 0.0001690344 -0.0014774761 0.0023570752 -0.000664229 -0.00065452495 -0.0014151019 0.0002806393 -0.00116048 0.0006380735 -0.00084834406 -0.0024479118 -0.001234794 -0.00068598666 -0.00020795189 0.002035296 -0.0016429389 -0.0011888332 0.00094514905 0.002385796 0.00068714964 -0.00016606005 -0.0007076684 0.002094678 -0.001967404 0.00043715976 -0.0015021488 -0.0007782758 0.0018732707 -0.00010733385 -0.0019595227 0.0018022727 -0.0018625478 0.0021493873 0.0007366509 -0.0010636508 -0.0020740053 -0.0018591593 -0.00036547502 -0.00071537576 -0.0016915961 0.0008567552 0.0014052935 -0.0015309947 -0.0016244813 -0.00091138977 0.002289642 -0.0013436322 0.0019698278 -0.0008572355 0.0018610329 -0.00015695326 0.002215452 -0.00074242847 -0.00085355045 -0.00015092471 -0.0012419382 -0.0019002575 0.0016298911 -0.0010390785 -0.0025405202 0.0009788381 -8.977155e-06 0.0020138118 0.0010498624 -0.0003080075 0.0013732744 0.0011248426 0.0015884371 -0.0016631829 0.00030562343 0.00011769151 -0.0006916434 -0.0020267407 0.0015487307 0.0014405558 0.0004219207 0.0012458013 -0.0009864052 0.00056316674 0.0014898153 0.0002193419 0.0006090988 0.0010492981 -0.0015515283 -0.0023840535 -0.0017491403
用于 0.00024384038 0.0019761089 -0.00088383385 0.002553542 0.0014621898 -0.0014729407 -0.002422993 0.0025307497 -0.00018043561 -0.00010935289 0.00036599865 -7.0830596e-05 0.00074567186 0.0014132602 -0.0012920601 0.00012951119 -0.00081993826 0.0010690022 0.00086277287 -0.0018656068 -0.00079914345 -0.0019070939 -0.0021543738 -0.0009862306 -0.0011235349 -0.0002689115 0.0025224674 -0.0017513923 0.0007093637 -0.00043330793 0.002157676 -0.00032058463 -4.747362e-05 2.829614e-05 0.0024852555 0.0017851494 0.0015448667 0.0016584372 -0.0014421967 -0.0006839495 0.0020327396 -0.0012328372 -0.001306072 0.0017674523 -0.000881837 0.0010793086 0.0011614653 -0.0007519754 0.00085059373 -0.00043136106 -0.0015575767 0.0021562022 0.0019230352 -0.002065447 -0.0028558774 -0.0023002583 -0.0020023347 6.770441e-05 -0.00067306554 0.00017489534 -0.001767694 -0.0011241123 0.0023076888 -0.002057498 0.0015342807 -0.002378576 -0.0005326924 0.0010724191 -0.0015824564 0.0007608571 0.00028857484 0.0005125625 0.0014297558 0.0014544853 0.0014146286 0.0012976368 0.0025469773 -0.002389838 0.0008312783 -0.0021787942 0.002165089 0.0008172806 -0.001597607 -0.00042214856 -0.0007649711 -0.0018293023 0.0011979124 -0.0017299079 -0.0023248615 -0.00067512324 0.001339759 0.0020927582 0.0015274115 0.0017578448 -0.0008604966 0.0021838376 -0.00036266897 -0.002542442 0.0023344257 0.00030357394 0.001870689 0.0008422585 -0.001286029 -0.00064681104 -0.001777543 -0.000464568 0.0016525853 -0.0018921704 0.0015712136 0.0024238722 0.0022809063 -0.0021082116 -0.00027142928 -0.0014314674 -0.000137245 0.0011650816 8.96052e-05 0.0019513506 0.0013355032 -0.0021981872 -0.0021058156 0.00040914342 -0.0011102546 0.0022083963 -0.0025778157 -0.000722019 -0.0018756444 -0.00091265753 0.00068175356 0.0023864051 0.00089097157 -0.00093207497 0.0007951696 -0.0008847735 -3.5722027e-05 0.00043540803 0.0017347321 -0.0011462002 0.0010216752 0.0014373105 -3.8599366e-05 -0.0025862202 0.00015041235 0.0017698314 -0.0008419527 0.0012482341 0.0013917966 0.0014322184 -0.0009958084 -0.0002565176 -0.0015654182 0.00029640895 0.0024029592 0.0017262183 -0.002009015 -0.0021570649 0.0007412747 0.0019334285 0.00040331698 -0.001456085 -0.002598 0.00013971618 0.0022325742 -0.0020201444 0.0010373637 0.0024623934 0.00049000356 0.00040981092 0.0024156254 -0.00028076992 0.0021976912 0.0018438667 0.001727729 -0.0013822966 -0.001504682 -0.0022521028 -0.0018664964 -0.00045303526 -0.0024442894 0.00032457706 -0.0018005187 0.00080718246 0.0005503158 -0.00014782931 0.0021306304 0.0007730582 0.0018105393 0.0005854692 0.0019268399 0.002143439 0.0022825778 -0.00061033934 -0.00085110194 -7.434937e-05 0.00028059873 -0.0019115447 0.00205469 -0.0018319594 -0.00069566764 0.0006337605
组合 -0.0010351568 -0.0017391096 -0.0006701784 0.0018001726 -0.00050045585 0.0007868489 0.00051623926 -0.001442126 0.002439455 -0.0009295882 0.0018422595 0.0019757682 -0.0024198827 -0.0022586475 0.00018794944 0.0001631819 -0.00054319313 -0.0006482332 0.0021650717 -0.0015283986 0.0017190097 0.0005171133 0.0022671297 -0.0018645681 0.0024205542 0.001837212 -0.0004054572 0.001250517 0.0014459566 -0.0009363092 0.0008397585 0.001963824 -0.0022053863 -0.00059570477 -0.0017471942 0.0005221888 -0.001929386 0.001852442 -0.000973755 0.000568002 -0.0015437496 -0.0013286226 0.0021170813 0.0010142138 0.0012960389 0.0013012559 -8.594397e-05 -0.0019298738 -0.0014683253 0.0012108096 0.0010873313 -0.0018933071 -0.0009846223 -0.0006120272 -0.00010031798 0.0024056588 0.00095214276 -0.000988169 -7.6218976e-06 0.00045389266 -0.0006010946 -0.0018830834 0.0012727709 -0.00035275723 0.0004923343 0.0023247488 0.0010344272 -0.0012247122 -0.00051316817 0.0013158906 -0.0017587886 0.0021295084 0.001354248 -0.0012122984 -0.0019380925 -0.0013422933 0.00020010085 4.1400646e-05 0.00040152943 -0.0007475655 -0.0019362018 -0.0006884426 0.0018678622 -0.002381679 -0.002591004 -0.0020972295 -0.000832384 0.00069129496 -0.0015739695 0.0009352653 -0.0017587759 0.0013233805 0.0004360023 0.00046932965 0.0006097571 0.0017026188 -0.0003960292 0.0010110204 -0.00030167337 -2.9283468e-05 -0.00017890228 -0.0014984045 -3.4439236e-05 0.0014240255 0.00067357114 -0.0014269062 0.0006007427 -0.0015852422 -0.0026297546 -0.0016243404 -0.0011765623 -0.00032964363 0.00072254805 0.0001193152 0.00013741944 -0.00017904477 -0.00022964686 -0.0021896143 0.001097067 -0.002392941 -0.0011400405 0.00083290826 0.00030809295 -0.0021179228 0.0003538611 -0.0019361263 0.0016181531 0.0025840292 0.0016858601 0.0013217484 0.001455436 -0.001864539 0.0024287035 -0.0004991243 -0.002205684 -0.0005380425 0.0010270658 0.00046946117 -0.001180325 -0.0008286299 -0.000134242 0.0023154586 0.0018905137 0.0015899101 -0.0022374413 0.0018407014 0.00072216796 -0.0012713484 -0.00078522274 -0.0012860901 0.0007374552 0.0018059566 0.0016383782 -0.0010478086 -0.00075969123 -0.00021153876 -0.0019082701 0.001656304 -0.000126554 -0.00095799647 -0.0016926841 -0.0011255585 0.0021566665 2.8805212e-06 0.00086785795 -0.0011798838 0.0015088035 -0.0010985844 0.0015492104 0.0010723303 0.0004569167 -0.000287183 -0.001641413 -0.0019461451 0.0018220518 -0.00126096 -0.001359989 -4.889197e-05 0.0002324119 -0.001456835 -0.0011545343 -0.0019865583 0.00044556 0.0011252427 -0.002037684 0.0012217378 0.00020912093 0.0020614527 -0.0008352048 0.0005709444 -0.0017087003 -0.0006509313 0.00094496843 0.0011630555 -0.0021040745 0.001976586 -0.0021717076 0.00074878987 -0.0023109268 0.00058036344
及其 -0.0010418161 0.0010278594 -0.0014260238 0.002478811 -0.0020191742 -0.0008544148 -0.00013649993 0.00032208447 0.0020133897 0.0023873765 -0.0023860924 3.3311687e-06 -0.0011881829 0.0024903743 0.0015875848 -0.0005602692 0.002248654 -0.0018619217 0.0012285382 -0.001006751 0.00054962497 -0.0015333961 -0.00231519 -0.0013749816 -0.0018115083 0.0005443661 0.00023801596 0.002061035 0.00074953015 -0.001053093 -0.0022921392 0.00037580624 -0.00056650594 -0.00030601825 0.00030785744 0.0012169087 -0.000651958 0.0021393967 0.002052587 0.0005812526 -0.00029633814 0.00052632473 6.9162255e-05 0.0008151801 -0.002043255 7.5125504e-06 0.0022200374 -0.0012861144 -0.0007233127 0.00012212365 0.0012954434 0.0015725096 0.0023759622 -0.0024814764 0.00034150484 0.0007068972 -0.00093956763 0.0011062307 -0.001067129 0.0013586 -0.000979114 8.5613516e-05 0.0010792731 0.0014133056 0.00039460932 0.0003998418 -0.0020013575 -0.00018936448 -0.00040064313 0.0010308649 0.0001261354 0.00022723677 0.0014894445 0.0009045709 0.0011402061 -0.001618983 0.0021047534 0.0015833869 -0.0010104834 0.0014903797 -0.0006823238 0.0018372821 -0.0012001884 -0.0014397452 0.0016456856 -0.00018738542 -0.0016394852 0.0005722054 0.001545562 -0.002464739 0.002214469 -0.0017714904 0.0023176477 -0.0013754229 0.0006681706 0.0011433712 0.00037517142 0.0010755985 0.00049640686 0.00088347256 0.00030338808 0.0023531225 0.000384956 -0.0007604001 0.0019428612 -0.0005610805 -0.0008951813 -0.0014630761 -0.00039679318 0.0018688333 -0.0023973365 -0.0023663505 0.0010534814 9.57624e-05 0.0014716149 -0.00012518768 -0.0009451221 0.0013020533 0.00017548914 0.0011727498 0.0014536481 -0.00010582246 -8.984596e-05 0.0019609202 -0.0011441911 0.0010263585 -0.00054169056 -0.0022513713 -0.0023415287 0.0005260764 0.0006168295 0.0013575726 8.259547e-05 0.0011185495 -0.0021174324 -0.00023669853 0.0010453406 0.0009868877 0.002280999 0.0017773896 0.0023682623 -0.0010386739 -0.0023369307 0.0018998759 -0.0025432438 0.0020303705 -0.0009287974 0.0007077514 -0.0015674165 -0.0021102945 -0.002427344 0.0010407049 0.0007678281 -0.0021299834 -0.00086803676 0.0020323603 -0.0012897261 0.0006327116 -0.0018135479 -0.0012343129 -0.0015078671 0.001691273 0.0009836195 -0.0018921016 0.0012039561 0.00249402 -0.002405276 -0.0010301126 0.0007104966 -0.0022046308 -0.0015189404 0.002449399 -0.0018400165 -0.00094808853 -0.0012067709 0.0006347851 0.0021835968 -0.0022028687 -0.0015992563 0.0017232875 -0.002449902 -0.0017117683 -0.0014145734 0.002295925 -0.0019860133 -0.0012408296 -0.0013326923 0.001449107 0.0019480485 -0.0005512558 -0.0024351608 0.0022608528 -0.0018109706 0.00087549817 0.0010896873 -0.0005487819 0.0013486545 -0.001326581 -0.0021578453 0.000979066
物 0.0020022786 -0.0024503605 0.0005818052 0.0015192615 0.0003236249 0.00032792092 0.0016353003 -0.0008339081 -0.0018924945 -0.00012868989 0.0013850915 -0.002415584 -0.002642401 0.0011193607 0.0024320395 -0.002285324 -0.0020320495 0.0012049422 0.0024242154 -0.00068056304 -0.0012560573 0.0021541966 0.0006530103 0.002395394 0.0011749751 -0.0010935632 0.00027419077 -0.0016199823 -0.0003277802 -0.0016487107 0.00026482547 0.0012869094 -0.0012134555 0.0025274027 -0.0007948504 -0.0013958622 -0.0013482152 0.002051732 -0.0024161867 0.0011154304 0.00033069492 -0.001731723 -0.0021855293 0.0024615228 0.0021791304 -0.0001641081 0.00148276 0.0023596222 -0.0010735461 0.0008571005 0.002063972 -0.0009993243 0.0013621609 -0.0014299052 -0.0022441174 -0.0016205302 -0.0017064163 -0.00015947362 -0.0014062609 -0.00042234611 -0.0018623278 0.001933204 -0.00069815724 0.00086140266 0.0018039881 0.0019484005 0.00036043476 -0.00043539132 0.0021296847 0.00050881493 0.00035727312 0.0015129587 0.0004920463 0.00076150626 0.0024423085 0.0008717076 3.5916644e-05 0.001339685 0.0018157328 -0.0008460138 0.0001641991 -0.00029985417 -0.0008472425 -0.0009560382 0.0018043051 -0.0021954589 0.00022852502 0.0005446197 -0.0011737923 0.0017154703 0.0022465342 0.0015006379 -0.0024962628 0.0021618484 -0.001374826 0.0026004447 0.002046169 -0.0002681004 -0.0007585753 0.0011265334 -0.000115034614 0.0007322764 0.0024305913 0.00056448276 -0.0013138235 -0.0009949631 0.0020435338 -0.0021051867 -0.0022546067 0.00057176844 0.0005978972 -0.0022840414 -0.0013102457 0.0015178103 0.0006114793 -0.00083927566 -0.0025043958 0.0006693058 -0.0020532736 0.0016222025 0.00044428118 0.00047053784 0.0023822198 -0.00092165684 -0.0016672247 0.001485068 -0.0017013262 0.0024463914 -0.0021610262 0.001958411 0.001843691 0.0004187037 2.8038236e-05 0.00012105634 -0.0015353614 0.0012385461 0.0021742312 0.0005587601 0.0016608228 -0.000510648 0.0006854575 0.0006669889 -0.0018058905 -0.0011580035 -0.00028491396 -0.0016035559 -0.002031773 0.0014874648 0.0006731981 -0.0006653818 -0.0010062306 -0.0005879051 -0.0010349898 -0.00079723564 -0.0023644061 0.0016445507 0.00087533926 -9.8055556e-05 0.00074939674 -0.0006080905 -0.0019601805 0.0025795328 -0.0022778457 -5.168258e-05 7.797764e-05 0.001489598 -0.0022660953 0.0006342982 0.0005474115 0.001969743 -0.0017380121 -0.001069939 -0.0022105582 -0.0026044264 0.00065220665 0.0015024075 -0.0011416532 0.0011980478 -0.0012415242 0.00018060654 -0.0024478175 0.0012515925 -0.0009758661 -0.0007903221 -0.0013389062 0.0019466066 0.00037223822 -0.0014463869 0.0024920194 0.0018188647 0.0018083559 -0.0010150393 0.0010170894 -0.0021145244 -0.0015803865 -0.001966717 -6.748286e-05 -0.0013079115 -0.00089517556 -0.0022586666
装置 -0.0012129177 0.0016423855 0.0012025405 0.00046490162 0.0006354358 -0.00071655674 -0.0007332663 0.00057183026 0.0007290216 0.0010904565 0.001539052 0.0021619834 0.0013000137 0.0010777732 -0.0010069043 -0.0009972706 9.3861054e-05 0.00087241817 -0.0021472005 -0.00030788506 0.0024296667 -0.0005743407 0.000527187 0.00091561716 0.0012943723 0.0014126187 0.0019192639 0.00087110925 0.00042635293 6.489559e-05 -0.0013595531 0.0015474405 0.0018415049 0.0017017664 -0.0013222506 0.0005558355 -0.00040107363 0.0012225498 -0.0016463499 -0.00025426853 0.001230978 0.0018504692 0.0016982397 0.0006423791 0.00144682 0.0016944675 0.0014614024 0.0016981862 -0.0017153145 0.0006562746 0.00020469514 -0.0013429283 -0.0004238469 0.0016476456 -0.0011051755 0.0018930981 -0.0012881897 0.0005512198 -0.0023585171 -0.00054285314 0.0016602138 -0.0010154166 -0.0023037938 0.0022643376 -0.00091379223 -0.0022173054 -0.00088620285 0.0020915659 0.0018518139 0.0001293024 3.6676076e-05 0.0005379014 -0.0020021389 -0.0016942812 -0.0016750285 7.006721e-05 -0.00026799238 0.0012713013 -0.0024291882 9.4320545e-05 -0.0015508279 -0.00037464814 -0.0023001481 -0.001487003 0.0012029468 0.0012778731 0.0018694996 0.00034765748 0.0010561836 -0.0016816789 -0.0016592179 -0.0003873608 -0.00032009435 -0.0010438893 0.0015101512 -0.002153796 -0.00047972996 -0.0018303266 -0.001238956 -0.0015599005 -0.001040991 0.00035950646 0.00021566972 -0.00127445 -0.00028572977 -0.0023708066 0.00046723968 -0.0010248892 0.00045297015 0.0008742406 0.0006697231 0.0020637896 -0.00027459124 -0.0001487167 -0.00072558556 -0.0013447936 -0.00032453644 -0.0003303365 -0.0019352795 0.0008824597 -0.0016230426 -0.0023214547 -0.00013875321 -0.0012646372 -0.00058043515 -0.0016238217 0.001111671 -4.1593332e-05 0.0009794426 0.00033869472 -0.0022495175 0.001634704 0.0016614003 0.00035065901 -0.0020501916 -0.0017522076 0.0017480094 0.0005927759 0.0023074364 0.0023898738 -0.00018660637 0.0014687885 0.0014366674 -0.0007437211 -0.0012251864 -0.00017283902 -0.0023543073 -0.00022318396 0.002351055 0.0013108584 -0.00040110163 -5.8483798e-05 -0.0010542505 -0.0007155968 0.00093259965 0.0001807358 0.0004536059 0.0021545957 -0.0024424812 -0.0014628555 0.0012641753 0.0018066609 -0.00025607474 -0.0015616792 0.0016917565 -0.0009269259 0.0004172093 -0.0024395075 6.412525e-05 -4.1518848e-05 0.0011891248 -0.0019538042 0.00017260638 0.0010972699 0.0020844617 -0.0023195224 0.00052310165 0.0007987899 0.0012238899 9.2454975e-05 -0.0010513848 0.002274396 0.0009230503 -0.0016998186 0.0009953848 0.0007356134 -0.0024249186 -0.0015213628 -0.0010032239 -0.0018173597 -0.00015150337 0.0009659655 -0.002113446 -0.0021533696 0.0014871535 0.00061458326 0.0012820413 0.0017935309 0.00035134258 0.0022064527
有机 -0.0019274268 0.0016030803 0.00047495204 -0.0016991073 -0.0016969364 0.0004785789 0.0018536263 7.9746416e-05 0.00036763222 0.0023435934 0.0024528285 -0.0016998302 0.0001472622 -0.00238666 -0.00013964188 0.0007063379 -0.0007603537 0.00083953544 -0.000802899 -0.0011966453 0.00013695352 -0.0011966523 -0.001426013 -0.00011704273 0.0012991903 -0.0012497336 -0.00038224005 0.0019042244 -0.00070912717 -0.0020996437 0.0015056895 0.00214755 0.00032512526 -0.0017760418 0.0011898617 -0.002408998 0.0014433332 0.0005940467 0.0004838885 -0.0013157835 0.0011978914 -0.0013898833 0.0006619563 0.0018838501 0.00057049555 -0.000232003 -0.0007743629 0.0023152006 6.561584e-05 0.00053549616 0.00018159077 -0.0016291336 1.4960761e-05 -0.0018710963 -0.0015334794 0.0019272594 -0.0020039317 -0.0017462109 -0.0009784949 0.00015417744 0.0021621156 0.0009238788 -0.0011930192 0.002197905 -0.0012075682 -0.0005253038 0.00071695884 -0.00010982273 -0.0020301102 -0.0004065855 0.0006409991 -0.0012222906 0.0024828902 0.0013190749 -0.00063952425 -0.00036825438 -0.0011398382 0.00017819203 0.0019942885 0.00034227973 -0.00095050415 0.0013088095 -0.0014351656 0.0013245319 -0.00245083 -0.0003571759 -0.0023232426 -0.00052501727 -0.0022809103 -0.00044764893 0.0010277095 0.0012953669 0.00055396184 0.00018004511 -0.00015659463 0.0015744121 0.0006046462 -0.001221269 -0.001825235 0.00047872154 -0.0011441235 0.0017550043 0.002416223 6.0789065e-05 -0.00028997238 -0.0021051564 -0.0015464186 -0.0010196347 -0.0025108359 -0.0007182172 -0.00011428531 -0.0006036825 0.0011443916 -0.0016171702 0.0012758931 -0.0017864965 -0.00022173632 0.001820462 -0.00012708061 -0.00019361688 -0.0023369882 0.0013620142 0.0013032276 0.00045038387 -0.0021871892 0.0015866986 0.0020638825 0.0011828601 -0.002491941 0.0015801132 0.00034218168 -0.0014862859 -0.0019351051 -0.000329342 -0.0005094172 -0.0005650923 -0.0009522183 -0.0014268664 -0.0018459562 0.0011233726 -0.002270229 0.0021139681 -0.0007771238 0.00094878895 -0.00079228764 -0.0024801397 -0.0007789979 -0.0018937363 -0.0015985722 0.0013917527 -0.001865479 -0.002152939 -0.0023309705 -0.00152714 -0.0017085522 0.0020883514 0.00089728524 -0.00032621817 -0.001333715 -0.0021476164 0.0008763478 0.0006814124 -0.00065679353 -0.0001503222 0.0021137001 -0.00046665783 -0.0019686103 -0.001216038 -0.001764121 0.00043085992 0.0022836663 0.00068927463 -0.0012203886 0.0010160764 -0.0004780408 0.002474473 0.0010568709 -0.0012454182 -0.00041589793 -6.6893685e-05 0.0014155537 -0.0013565872 0.0013756838 0.0018597059 -0.0021926037 0.0020475509 0.0011609677 0.0013662061 0.0023172582 3.2119315e-06 -0.00085110305 -8.974097e-05 -0.0023474102 0.00055456115 -0.0012657744 0.0025290917 0.0016117985 0.0012966152 -0.0017572289 0.00029256803
化合物 0.0011026757 -0.0011806095 -0.0013384545 0.0019631805 0.0004934138 -0.0025981881 0.0010436313 -0.0008784969 -0.0008820952 -0.00230055 -0.0011720314 5.45062e-05 -0.001584218 0.0019223128 -0.0020625852 -0.001464449 0.001840585 -0.0017192647 -0.00068376865 -0.00052685663 -0.0009421887 -0.00015003316 -0.0016856408 0.0012330009 0.0024835872 0.001656073 -0.00015656762 -0.0019820482 0.0018183693 -0.0005770686 2.9712064e-05 -0.0017608613 0.00071985094 0.002258172 3.5886853e-05 0.00011626372 -0.0019022203 -0.0021866388 0.0021923282 -0.0023730467 0.0006407461 -0.0019014628 0.002355574 -0.0018868549 0.0025902407 0.0011569721 -0.0020751706 0.0013388098 -0.0023212607 -0.0011985847 0.0016659708 0.0022339642 -0.0006666105 0.00037145158 -0.0025705134 -0.0016941788 -0.002111962 -0.00083194656 0.0011229783 0.0018190879 -0.0016398889 0.0022570805 -0.0013255732 0.0016371465 -0.0008785145 0.0020125937 0.0014077785 0.0020708449 0.00096899417 0.0025106827 -0.0023401312 0.0007516003 -0.0006473354 0.0022249485 0.001674107 -0.0009033955 0.0018623726 0.0004431187 0.0014839242 -0.0022001308 -0.00045443993 -0.0014114698 0.0011725731 -0.001679506 -0.0001302461 -0.0008772955 0.0020364625 0.0016235847 -0.0016491744 0.0023326576 0.0011597257 0.0008587493 -0.00031721103 -0.0018280221 -0.000672957 0.0019244007 0.0013145432 -0.001029861 0.00080401404 -0.00082229695 -0.002080966 0.00044840615 0.001205818 0.0007318216 -0.0013846207 -0.0026263113 0.0023556282 -0.0024451723 -0.0019038458 0.00079738453 -0.00026507356 0.0012306854 -0.0008298038 -0.0025735085 -0.0017274542 -0.0012107401 -0.0004522793 -0.0025648086 -0.0014430035 0.0022645995 4.4575914e-05 0.002602969 0.0013296064 0.0013951521 0.0019620676 -0.0011712869 -0.0009636468 0.0022566111 -0.0019100434 0.0014712805 0.00045195338 0.0015867533 -0.0008088853 0.0009940241 0.0016512311 0.002406714 -0.0010559531 0.0022756937 -0.0025591578 -0.0014341233 0.0015561095 -0.0025356917 -0.000522241 0.0024520834 -0.0001650479 -0.000103713515 0.002119433 0.0015078429 -0.00017553754 -0.0008062087 -0.0015006171 -0.0007985161 -0.0015416613 -0.0011211658 0.0005160227 -0.0011475044 0.0016394532 -0.00010005891 -0.00065629283 0.0016366444 -0.0005048911 0.00043323953 0.0016359056 -8.099438e-05 0.00090479176 0.00073630345 -0.0025620924 -0.0011182809 -0.002533112 -0.00037860248 -0.0010836892 0.0022880766 0.0017842855 -0.002085678 0.00058873405 -0.0023455964 3.7486825e-06 0.000620911 -0.0013751319 0.00010275525 0.00054770446 -0.0017239151 0.0005049886 -0.0012824421 -6.134992e-05 -0.0012679019 0.002196721 -0.0020315484 0.0020015414 -0.0024219935 -0.0004540494 0.0009221525 -0.0010416138 0.0019451241 0.0019207519 0.0017995832 0.0010316913 0.0020939114 -0.0016752956 0.0012177307
治疗 -0.00156605 -0.0013713699 0.0019943924 0.0013344587 0.0012928925 0.0010100958 -0.0023267602 -0.000910113 -0.0013639951 0.001622088 -0.0021187698 0.002306828 0.00089589873 0.0021571917 -0.0016090523 -0.0007626181 0.0020156375 0.0013154462 -0.0012384262 0.0023462623 -0.00023573819 0.00041066774 0.0017320464 -0.00010798916 -0.00052477716 0.0015212636 -4.4289336e-05 0.0023627006 -0.00081717473 -0.0017223386 0.0018752269 -0.00094889436 -0.0018264785 0.0017994922 0.0010059902 -0.0023914487 -0.0012880433 -0.0005611885 0.00014444756 0.002018331 0.00034114663 -0.001861228 -0.0020044947 0.0013876602 0.0025112785 0.001805444 0.0013575505 0.0016451946 -0.0018349563 -0.0010409255 -4.054413e-05 -0.002472182 -0.0008766446 2.7762484e-05 -0.00020880434 0.0018710187 -0.00040606858 -0.002292101 -0.0021882919 0.002400494 0.0015965228 0.002406259 -0.0023899819 0.0018121495 -0.00012204298 0.0012620327 -0.0021155593 0.0019110943 0.0022083605 -0.00014375837 0.002199107 -0.002473487 0.0004264228 0.0018369532 0.0023161992 0.0019275687 0.0007416969 -6.58172e-05 0.0010520465 0.0010491862 -0.00022104438 0.0016677586 -0.0010052604 -0.00095851824 -0.0019629095 -0.0017313542 0.00018358219 0.0008901626 0.00012944062 -0.00089034514 0.0022343653 0.0001710303 0.000546588 -0.002267497 0.0023388038 -0.0018125499 0.002440157 -0.0008679196 0.0020341312 0.0012865419 0.0018251439 -0.0012119766 -0.00084741117 0.0003392186 -0.0022711302 0.00040367676 0.0017469096 -0.0004889236 0.00043463145 2.7180378e-05 -0.0006625718 0.0010879907 0.0018257061 0.00012338432 -0.0004846335 0.0003406971 -0.001463573 0.0018649931 0.00053461664 0.0016310043 0.0014251064 -0.0023170335 0.001182571 -0.0002160223 4.0389194e-05 0.0017494992 -0.0006937488 0.0020321344 0.0010464541 -0.000462886 -0.0009880188 0.0023390271 -0.00047382174 0.0018971557 -0.00021994727 0.00061862613 0.0012281922 0.0012629698 -0.0006569968 0.0006770941 -0.0015169564 -0.0008065286 0.0016507099 0.0020871358 -0.0013115497 0.0005284974 -0.00019989406 -0.0012512426 -0.0018667367 0.0007046848 0.00023186389 0.0007572769 0.00064615876 -6.867524e-05 0.0015840578 -0.0008463447 -0.00047891113 0.0008453145 0.00031838327 -0.0011489494 -0.0009730724 -0.0022462534 0.0023230372 -0.0023727168 0.0021123395 -0.0016803881 -0.001185456 0.0018982284 -0.0010230968 0.0018914595 0.0014231656 0.00020778857 7.3496354e-05 0.001480634 0.0010315633 -0.0005976624 0.0024072768 -0.001101381 -0.0023933349 -0.0015991484 -6.502053e-05 0.0012694638 0.0002800622 0.0016316696 0.0015539887 0.002422416 -0.001968216 0.0015918539 -0.0005648101 0.001299051 -0.0018641641 -0.0020361312 -0.0017291014 0.0022636168 -0.000651293 -0.00010738868 -0.0020069564 -0.001013371 -0.0015369296 0.0014272009
用途 0.0023477278 0.00095566455 0.0008081777 0.0023774174 -0.0022067928 0.002127436 -0.0016252875 0.001902736 0.00017122236 0.0012246071 0.0017595442 -0.0015219824 -0.00025891192 -0.0002284773 -0.0018308792 0.0022029218 -0.0020792105 0.0022165272 0.0010616332 -0.0018946608 -0.0010122188 0.00027566112 -0.00072531134 -0.0008550797 -0.00048265362 0.0009527562 0.001741409 0.0012659007 0.00042922446 -0.001715689 0.00035682172 -0.0009935247 -0.0005684059 0.0015309539 -0.00045499313 0.0017176722 -4.4084063e-05 -0.0010820063 0.0024006388 -0.0023095633 0.002497563 0.0019359019 0.0007363952 0.002120518 0.00023123926 -0.0017470268 -0.0008913905 0.00082338764 -0.0016619071 -0.00058860186 -0.0009054617 0.00038892453 0.00031419224 7.072208e-05 0.0009074906 0.0007118619 0.00045562972 -0.00047231105 -0.0024363133 -0.001119751 -0.0017853073 0.0016872073 -0.0004286353 -0.0013064315 0.0018696022 -0.00084749516 0.0013516598 -0.0015363598 0.0021426722 6.957777e-05 -2.9850786e-05 -0.0011110884 0.0004696823 -0.0024591938 0.0014509172 -0.0008790246 -0.0005061242 0.0004961059 0.0011991474 0.0019154992 0.00056162203 0.0013257611 0.001825206 0.0015422793 -0.00083720795 -0.0017469322 0.00241949 -0.0010078988 0.0010212859 0.0019536745 -0.0006641427 -0.0021338982 0.0010653576 0.002185615 0.0019894966 -0.0018036037 -0.00060304615 -0.0011889333 -0.0022392788 -0.0011134185 -0.0016072838 0.0016851758 0.0013875997 0.00027737574 0.002219612 -0.00097605365 -0.0018942404 0.0023361125 -0.0017943424 -0.0004684945 -0.0007247333 0.0005184512 0.0015011317 -0.0020765716 0.0012109337 -0.0005402261 -0.0021019077 -0.0023833732 -0.0019198429 -0.001954918 -0.0012153762 0.00034930732 0.0014652188 -0.00040152078 -0.0021229787 0.002192494 0.0011011669 0.00061000715 -0.0013891768 -0.0017704038 0.0020866264 -0.00034940758 0.0013836153 -0.0006992706 -0.0018874705 0.00028236525 0.0022113496 -0.0023908692 0.0010818797 0.0021238802 -0.00044854777 0.0016925869 0.000626021 -6.6411514e-05 0.0011880099 0.0012954072 0.0011696555 -0.0014668311 0.00082148355 0.0008198647 -0.0002020684 8.233047e-05 0.0015878472 -0.00093011797 0.00056660647 -0.00041772932 0.00065799884 -0.00037558144 0.0023479392 0.00028083802 -0.0021868537 0.0011803347 0.000121961944 -0.00076212676 -0.0021742864 -4.083645e-05 0.00038396046 0.0012681953 -0.0017312472 0.0021041178 -0.0016721095 -0.00033064833 -0.0024564983 -0.0023567434 0.0013157837 -0.0017528414 -0.0024435022 0.0015414505 -0.0022412261 0.00034440917 0.001828649 -0.0022267546 -0.002037056 0.00016645635 0.0023498745 0.00094571454 -0.0016194556 -0.0024620146 -0.00016887383 -0.00036968538 6.2052723e-06 0.0002469401 0.00086633174 -0.001867043 1.3013707e-05 0.0016092237 0.0025011522 0.0019960064 0.00245102 -0.0017064331
系统 -0.0018450039 -0.0011030313 0.00049974414 0.0005093824 -0.00039575642 -0.0025928335 0.0004058618 0.00085704203 -0.0017851754 -0.0017057237 -0.0011204872 -0.0006833886 -0.0005676021 -0.0005246697 0.0002576129 -0.00074642495 0.0021233563 -0.0017540274 0.0025137805 0.0003658926 -0.00023796721 0.0018171641 0.000105162726 0.0006181882 0.00034160292 0.0014924015 0.0022906621 0.0013829875 0.0021190993 0.0023424106 0.0006557217 0.0016666021 9.597769e-05 0.0023492374 0.0020789076 0.0009125516 -0.00085177127 -0.0023484256 -0.0014133337 -0.0018882838 0.00041804614 -0.0023702395 -0.0008552916 0.0006459554 -0.0012237909 0.0008534582 0.0025083825 0.001289143 -0.002378551 -0.0012625488 -0.0018847081 0.0014155281 0.0007090769 0.0009710635 -0.0012192175 0.001130492 0.0003112291 0.00065889274 0.0013079707 0.0007035424 -0.00038067964 -0.0021851088 -0.0013139264 0.00235686 0.0015826176 0.0009797588 -0.0022325376 -0.00077489094 0.0021402359 -0.0014612043 -0.0005190609 -0.0010590224 0.0013863517 0.0016094723 0.0020487718 0.0010796131 -0.001347109 0.0014291847 0.0003115071 0.0020506158 0.0017355874 0.0018434433 -0.0009812299 0.00183816 -0.0017022041 -0.0016398246 0.00059865095 0.00021402286 0.0009292342 -0.00071284693 0.0020328255 -0.002435811 -0.0006174049 -0.00011907873 -0.0018871811 0.0026288484 -0.0002819627 -0.0018430393 0.0019385144 -0.002478331 -0.00014309408 0.0021011184 0.000978904 0.0024820436 -0.0020209274 -0.002745743 0.0016968636 -0.00096529076 0.0008645318 9.869839e-05 -0.002003132 -0.0004031428 -8.949922e-05 -0.0021233624 -0.0017160164 -0.00060887507 -0.0011183928 0.00021111881 0.00083847344 -0.0022381386 -0.0015452828 8.895591e-05 -0.002230578 0.0006892128 -0.0024281621 0.0018926729 0.0021093693 0.002731801 -0.0017186456 -0.00027267225 -0.0010785483 0.0006396007 0.0014049099 -0.0020846373 -0.0017142468 0.0018669728 0.0015216053 0.0024004723 -0.0011024314 0.00043791792 0.0017092536 -0.0013007269 -0.002697834 -0.00037674195 -0.0021227673 -0.0009720515 2.0721858e-05 0.0021950789 0.0017430518 -0.0009994004 -0.0018388523 -0.002079067 -9.189596e-05 0.001519331 -0.0026374992 0.0019685687 -0.001293786 0.0026820905 0.0013470665 -0.0008333863 0.0011030338 0.0020757227 -0.0010511022 -0.0008287765 0.002437878 0.00076770876 0.0006331479 -0.0006285626 -0.00054486847 0.0024573477 -0.001990985 -0.00020308736 0.0010798551 -0.0002378151 -0.0008386799 -0.0011026924 0.002086381 -0.0019734674 -0.0009777753 -0.0020500496 0.0014368074 0.0002000161 0.00094138604 0.00022240887 0.00059434434 0.0013094503 0.00055026554 -0.00068602315 0.0014267116 -0.0018795858 -7.849861e-05 -0.00240433 0.00013159364 -0.0005422348 1.514299e-05 -0.0022706268 -0.00043440764 -0.00084152457 -0.001236437 0.0023191874
或 0.00037794854 0.0022083495 -0.00016857378 -0.0019761596 -0.00030674032 -0.0022834055 -0.0023667554 0.00077533233 -0.0005198597 0.0010609688 -0.0013562257 -0.000571373 -0.00022539798 0.0018256028 -0.00084053417 -0.0017423831 0.000712934 0.001395013 -0.001102248 -0.002213064 0.0015128385 -0.0004299281 -0.0024934427 0.0010471678 0.0014876858 0.0019969011 0.0015758325 0.0001144259 -0.0012406724 0.0007164902 0.0015185425 0.00078481494 -0.0005542934 -0.0018230275 0.0003515916 -0.0008708126 0.00046196824 -0.0023919796 -0.001975864 -0.0010225172 -0.0011514813 0.0015542732 -0.0012749237 -0.0006111943 0.00015689143 -0.00061776483 0.0012432672 -0.0022703446 -0.0021071357 -0.0015822833 -0.0021598071 9.930909e-05 -0.0016254537 0.0008191423 -0.0023594429 -0.00032021612 -0.0017232294 -0.0002114261 0.0011948594 -0.0011765398 0.0004141064 -0.0004768195 0.0001111766 -0.00226141 0.000667971 -0.001601198 -0.00037706143 0.002514414 0.0019143426 -0.0024943482 0.001324312 -8.822163e-05 -0.0021748014 -0.00089007826 0.0016145715 0.0022688233 -4.8860147e-05 0.0016522385 -0.0023525285 0.00038972797 0.0017987732 0.0007315344 0.0017851418 0.0007512328 -0.0011460115 0.00025120223 0.00011595244 -0.00015335483 0.0012195414 -0.0019781399 -0.00036906934 0.00054518745 -0.0017277726 0.0021336828 0.00038431174 -0.0019445693 -0.0010977511 -0.0023312485 -0.0006617676 -0.0011811083 -0.0019390677 0.0006868911 0.0025784743 0.0017522817 -0.0015825541 0.0018858834 0.0021472005 0.00058097177 -0.00028405437 0.00022127181 -0.00084400637 0.0018992255 -0.002121722 -0.00096311484 -0.0016675264 0.000607915 -0.0013512012 -0.00010076033 -0.0011092997 0.0018323523 -0.00055332703 0.0021078198 -0.0005123073 0.000991239 -0.000831382 0.0013540743 0.0021816567 -0.00062788423 0.0015170239 -0.0017625431 0.0010138883 0.0013657256 0.0014854451 -0.001784615 -0.00016560622 -0.0022398261 0.0023796079 -0.000115374256 -0.00010110202 0.0006698648 -6.896339e-05 -0.0014962576 -0.0017700226 -0.0009177292 -0.0024552222 -0.0023876557 0.0015147798 0.001235047 -0.0010584865 -6.794333e-05 0.0007786657 -0.00028620876 0.00054840295 -0.0016481694 -0.0020354902 -0.0019497009 -0.00058781856 0.00080645474 -0.00048762318 0.0016541616 -0.0007627273 -0.0020158787 -0.00083596807 -0.0017921551 0.00036928238 -0.0011491553 -0.00048499773 0.0020938676 0.00047526645 -0.00010184088 -0.0023241402 -0.00083686167 0.0010274231 -0.002529002 0.00033761468 8.7947716e-05 -0.0024983587 0.001787817 -0.0015123079 0.0022360955 0.0022755116 -0.0006162776 0.002267116 0.0021023254 -0.0012833963 0.0012973287 -0.0011554308 -0.0019212671 0.0023853725 -0.002399334 -0.0016795653 -0.0010646567 -0.0022626643 0.00029182303 0.0010781039 -0.0006671237 0.0017067883 0.0015585483 0.0013952667 -0.0014472419
使用 0.0013897257 -0.0019185882 0.00032698215 0.0013191962 -0.0009693059 0.0017651287 -0.0014659094 -1.6365226e-05 -0.0012730084 -0.00040309218 0.0024864278 0.0022956731 -0.0015617489 0.0013676985 0.0019336845 -0.0015330836 0.0023018084 0.0015744134 -0.0022473186 0.0013035104 0.00077027915 -0.001230497 -0.0004411488 0.0020945966 0.00043678406 0.0019478569 0.00038895474 -0.0014692446 0.0023589982 0.00038348182 -0.0016442944 -0.00025944223 0.0019952338 0.00041581146 -0.0012924372 0.0004294609 0.00053289975 0.0020397312 -8.605002e-05 0.0022121023 0.0017154698 0.00034542053 0.0019451365 0.00084898475 -1.560937e-05 -0.0007680482 -0.0010106608 -0.0008630786 0.0011681543 0.0020380027 0.0006588737 -0.0014627662 -0.0020668663 0.0016652807 0.0012644506 0.001127994 0.0018319079 -0.0022939607 -0.00083019066 -0.0018171219 -0.0009076407 0.00053893396 -0.0023440022 -0.00051017 -0.0022718105 0.0015784362 0.0010488097 -0.00012819825 0.001538593 -0.0024696186 -0.0023390234 0.0022955067 0.0020267193 0.0005490584 0.00074622943 0.001422372 0.0010121736 0.0023539618 0.0012173912 0.0011182708 0.0010384806 -0.00023951524 -0.0010481022 0.0021471165 -0.0017950732 0.0017235482 3.45985e-05 0.0010050964 -5.078454e-05 -0.00026019223 0.0021597806 0.000894742 -1.1065972e-05 0.00037886683 0.0023163108 -0.00032146618 0.00042519416 -0.0023072104 -0.0005723994 0.0005978158 -0.0004990637 -0.0023062988 0.00206171 0.0015797407 0.00041611347 -0.0008576993 0.00082658837 -0.0023559143 -0.0025636395 -0.00017656779 -0.0019408884 -0.00058370497 0.0014332518 -0.00050778664 -0.00069046946 -0.00081996684 -0.0019454781 -0.0010337181 -0.001112562 -0.0005379627 -0.0012205868 0.0012731537 -0.0014381679 -0.00071169256 0.0010189938 -0.0005436292 0.0015750154 -0.002317549 0.0024119273 0.00088014436 -0.00076736277 0.0017519965 0.0016709163 0.0014071843 -0.0022886163 0.0019002578 0.0019365815 -0.0017377542 0.0009722366 0.002417898 -0.00013542248 -0.0024050144 -0.0014150144 0.0015322217 0.0016432749 -0.0011195499 0.002197799 0.00054150634 -0.0003948118 -0.00064097345 -0.0012502058 -0.00078396074 -0.0021912924 -0.00085756916 -0.0011096266 -0.0010367512 0.0021885948 -0.00022748337 -0.0018780397 0.0010787161 -0.00024862008 0.0021977467 -0.0018444465 -0.001093606 0.00063423166 -0.000376859 -0.0014249258 -0.0005123113 0.0016447714 0.00082993635 0.0020560285 0.0007648655 -0.0013544103 -0.0015451256 -0.0012179452 -6.50168e-05 0.0018499016 0.0008072506 -0.00089682615 -0.0014389963 0.0017543313 0.00041916373 -0.0011085332 -0.0013002348 0.0020560687 -0.000987558 -0.00087689114 -0.0023462495 -9.826429e-05 -0.0013327518 -0.0006878295 0.00052367296 -0.0006913941 -0.0019020665 -0.00081448664 -0.0021013438 0.0012155559 -0.0017655741 0.0010895838 0.00032064973
抗体 0.00032984497 -0.0016618576 0.0022102164 0.0013362506 -0.0004194021 0.00047527303 -0.0024428754 0.002123479 -0.0023411384 0.0005879247 0.0011098589 0.002342452 0.0011743779 0.0013949521 0.0018432065 -0.0018521611 -0.0021531312 0.00023903564 -0.0023661726 0.0010076817 0.000708901 -0.00036062094 0.00021527332 0.0005089031 0.002369348 0.000114992705 -0.0022725996 -0.00054356013 0.00060498004 0.00040107223 -0.0011314716 0.0016809839 0.000121475256 -0.0012329634 0.00033173786 0.0023873784 0.0020411713 0.0007012585 0.002305409 -0.0022321031 0.0011427726 0.0013357198 -0.002094572 0.0011549827 -0.00022938263 0.001966977 -0.0020355748 0.0010703747 -0.0024659745 0.0017635842 0.0010495035 0.0016713546 0.00053601013 -0.00035730688 -0.0015994011 0.00018950885 0.0004860793 -0.0012249302 0.002266315 0.0022012235 -0.001206483 0.00015706522 -0.00015249566 -0.0016846835 -0.002068322 0.0014385922 0.0017350162 0.00042598805 -0.0022815755 0.00026508278 7.334446e-05 0.0024337466 -0.00197678 0.0024850944 0.002410852 -0.00089107384 0.002479573 0.0019393822 -0.0011401371 -0.0014220413 0.0017888659 -0.0018816148 0.0014865535 -0.002029861 0.00020742603 0.0023208999 0.0002625926 -0.001134335 0.0013056141 0.00044375804 -0.00064213114 0.00020283811 0.0022257653 -0.002055978 0.0012686392 0.0024169567 -0.00032578173 0.00068932667 0.0015855299 0.00030960044 0.0014047137 -0.00025917141 0.0016729699 -0.0009330624 -0.0024014877 -0.0011188677 -0.00091157446 0.0022914044 -0.0015896864 -0.00045915012 -0.0016386729 0.0012468408 8.3397885e-05 0.0002573642 -0.00018248678 0.0006124369 0.0023991847 -0.0017749772 -0.0023321523 0.00039963363 0.002379559 -0.001822916 0.0010584855 0.0008816047 0.0024255728 -0.0018986649 -0.0008908517 0.001275083 0.0015757246 0.00016306326 -0.00088504085 0.00080259214 0.0010575504 -0.00094236777 -0.0011518131 0.0014205446 0.0020018711 0.0009902862 0.0023941018 0.001639933 0.0017502778 0.002411108 -0.002508697 -0.0022849261 -0.0020456489 0.00018722069 0.0025292505 0.0012903961 -0.0020864324 -0.002494166 -0.0012250021 -0.0010741261 -0.0015436071 0.0012448677 -0.0011596279 -0.0007721737 0.00025041474 0.0013313709 0.00079047686 -0.0018756768 -0.0016800559 0.000623023 0.0023456542 0.0017576121 -0.0002804166 0.0012233718 -0.0019164738 0.00016885101 -0.00015559819 0.0019017678 0.0011103932 0.00047134113 0.0015324414 0.00080625416 0.00080939115 -0.0018029066 0.0015465316 -0.0023495439 -0.0024975687 0.0016842715 -0.0013427231 -0.0002696129 0.00040309888 0.0019051178 0.001124923 -0.0022611555 0.00096847926 0.0009574792 -0.00063765736 -0.00106039 0.0004447697 -0.0021327494 0.0010411373 0.002304904 -0.00061538076 0.0012198346 -0.00055051106 -0.0020283915 -0.0010233069 0.00049670803
发光 -4.098386e-05 0.0019038991 -0.0013444937 -0.0016127938 0.0024269144 -0.0010344759 -0.0010717155 0.0005237694 0.0011973286 -0.0009606412 -0.0008391737 -0.00094845885 -0.0011546098 0.0008345671 9.9355086e-05 -0.00037072168 0.0001468611 -0.0010863208 0.0010051205 -0.0014989113 0.0013149439 0.0012381519 0.0022166295 0.0012695726 -0.0015233669 0.0024894858 0.0007878155 -0.0012000807 -0.0013336601 -0.0019712236 -0.0016555336 -0.002263563 0.0008594544 -0.00030203562 0.0009840553 0.0018723434 0.001972575 0.0011164341 -0.0024181206 0.0007386508 0.001123541 -0.0009763327 -0.00030499516 0.0020004597 5.5928434e-05 -0.0019170922 0.0014915945 0.0021086084 -0.00257282 0.0015095114 -0.0015903723 0.0018649123 -0.00020507851 -0.0013116029 -0.0025844686 0.001220049 -0.001018493 0.00015520638 -0.00076651503 0.001154296 0.0022552595 -0.00047369633 0.0008004762 -0.0011862271 0.0006505484 0.0025028153 0.00057930517 -0.0013169963 -0.0020655096 6.2974024e-05 0.00064412894 0.0022914775 0.0007922284 0.001194002 -0.0020549584 -4.929066e-05 0.0011955437 -0.00090460497 0.0020748188 -0.0014758874 -0.0013712371 -0.00011924674 0.0020432652 0.00025103634 -0.0018377338 0.00030037467 0.0023596406 -0.0004579491 -0.00094111246 -0.001459837 0.0020501516 -0.0024714808 -0.0021156408 -0.0012623305 -0.002236061 -0.0011176096 0.0022335534 -0.0015460943 0.0019103573 0.0013220739 0.0013586484 -0.001330518 -0.0019690963 0.0020102838 0.0016215041 -0.0019425333 -0.0014021053 0.0015904824 -0.0022245126 0.0015662657 0.0018190183 -0.0003307037 -0.0005572464 -0.002200507 0.0014310491 -0.00071712706 0.000827598 -5.2082676e-05 -0.0014488945 -0.0019753492 -0.00088112697 0.0017802023 -0.00021892822 0.0020504552 7.637024e-05 -0.0014089127 0.00076847285 -0.0013565475 0.00022948206 0.001325008 0.00021191407 0.00031259996 0.00035256956 -0.0013082064 0.0014735506 0.0012679606 0.0023570913 0.0013606158 -0.00206733 0.0003092516 0.0017171891 -0.0009476629 0.0011960458 0.00081628014 0.0015913135 0.00082830124 0.00094719743 0.00038690868 0.0007259209 0.0012759222 -0.002196057 -0.0007572308 -0.00079158647 -0.001250075 -0.0015442084 -0.0022021628 0.0005788073 0.0017826252 0.0009167824 -0.00034835568 -0.0016506658 0.0018399061 0.001244414 0.0008891673 0.0020356732 -0.0006902637 0.0002960552 -0.002011465 -0.00062289997 -0.00020551932 -0.00019908726 0.0003525462 -0.0019789815 0.0023498351 0.0009003747 -0.0016487224 0.00029961072 0.0015349349 -0.0012773843 -0.0023400688 0.0010767307 0.0014661577 0.001606604 -0.0010661945 0.00019546981 0.00026881433 0.0011467639 -0.0008256815 -0.0017125277 -0.0006040167 -0.0013012931 0.0013502707 0.0009872292 -0.0023128055 0.00070883136 0.00081116066 -0.0010111231 0.0011749689 -0.0012608392 -0.00084455224
